2017-05-01 21:56:35,231 - __main__ - DEBUG - rank: 1, lmbda: 0.2, num_iter: 1, num_partitions: 7
2017-05-01 21:56:35,231 - __main__ - DEBUG - data_path: datasets/ml-1m/, checkpoint_dir: /home/maxikov/spark_dir
2017-05-01 21:56:35,231 - __main__ - DEBUG - Temp dir: /home/maxikov/spark_dir
2017-05-01 21:56:35,231 - __main__ - DEBUG - local_threads: *
2017-05-01 21:56:35,231 - __main__ - DEBUG - spark_executor_memory: 20g
2017-05-01 21:56:35,232 - __main__ - DEBUG - regression_model: regression_tree
2017-05-01 21:56:35,232 - __main__ - DEBUG - nbins: 2
2017-05-01 21:56:35,232 - __main__ - DEBUG - regression_users: False
2017-05-01 21:56:35,232 - __main__ - DEBUG - predict_product_features: False
2017-05-01 21:56:35,232 - __main__ - DEBUG - metadata_sources: ['years', 'genres']
2017-05-01 21:56:35,232 - __main__ - DEBUG - movies_file: datasets/ml-20m/ml-20m.imdb.medium.csv
2017-05-01 21:56:35,232 - __main__ - DEBUG - cross_validation: 70
2017-05-01 21:56:35,232 - __main__ - DEBUG - tvtropes_file: datasets/dbtropes/tropes.csv
2017-05-01 21:56:35,232 - __main__ - DEBUG - features_trim_percentile: 0
2017-05-01 21:56:35,232 - __main__ - DEBUG - drop_missing_movies: False
2017-05-01 21:56:35,232 - __main__ - DEBUG - drop_rare_features: 0
2017-05-01 21:56:35,232 - __main__ - DEBUG - filter_data_set: 1
2017-05-01 21:56:35,232 - __main__ - DEBUG - persist_dir: logs/quick_test.state, override_args: True
2017-05-01 21:56:35,232 - __main__ - DEBUG - override_args is set, ignoring stored version
2017-05-01 21:56:35,232 - __main__ - DEBUG - Storing in logs/quick_test.state/args.pkl
2017-05-01 21:56:36,404 - __main__ - DEBUG - msep: ,
2017-05-01 21:56:36,404 - __main__ - DEBUG - Loading ratings
2017-05-01 21:56:36,995 - __main__ - DEBUG - Done in 0.590064 seconds
2017-05-01 21:56:36,995 - __main__ - DEBUG - Loading movies
2017-05-01 21:56:38,137 - __main__ - DEBUG - Done in 1.142285 seconds
2017-05-01 21:56:38,138 - __main__ - DEBUG - 26804 movies loaded
2017-05-01 21:56:41,233 - __main__ - DEBUG - 99376 records in the training set
2017-05-01 21:56:41,339 - __main__ - DEBUG - 3262 unique movies in the training set
2017-05-01 21:56:41,339 - __main__ - DEBUG - Loading years
2017-05-01 21:56:41,590 - __main__ - DEBUG - Done in 0.251312971115 seconds
2017-05-01 21:56:41,590 - __main__ - DEBUG - 26804 records of 1 features loaded
2017-05-01 21:56:41,884 - __main__ - DEBUG - No missing IDs
2017-05-01 21:56:41,884 - __main__ - DEBUG - Loading genres
2017-05-01 21:56:42,439 - __main__ - DEBUG - Done in 0.554538965225 seconds
2017-05-01 21:56:42,439 - __main__ - DEBUG - 26804 records of 20 features loaded
2017-05-01 21:56:42,705 - __main__ - DEBUG - No missing IDs
2017-05-01 21:56:42,749 - __main__ - DEBUG - 21 features loaded
2017-05-01 21:56:42,749 - __main__ - DEBUG - Training ALS recommender
2017-05-01 21:56:44,693 - __main__ - DEBUG - Done in 1.944182 seconds
2017-05-01 21:56:44,733 - __main__ - DEBUG - Storing in logs/quick_test.state/results.pkl
2017-05-01 21:56:44,735 - __main__ - DEBUG - Processing year (0 out of 21)
2017-05-01 21:56:44,735 - __main__ - DEBUG - Already computed, skipping
2017-05-01 21:56:44,735 - __main__ - DEBUG - Processing movielens_genre:(no genres listed) (1 out of 21)
2017-05-01 21:56:44,735 - __main__ - DEBUG - Already computed, skipping
2017-05-01 21:56:44,735 - __main__ - DEBUG - Processing movielens_genre:Action (2 out of 21)
2017-05-01 21:56:44,735 - __main__ - DEBUG - Already computed, skipping
2017-05-01 21:56:44,735 - __main__ - DEBUG - Processing movielens_genre:Adventure (3 out of 21)
2017-05-01 21:56:44,735 - __main__ - DEBUG - Already computed, skipping
2017-05-01 21:56:44,735 - __main__ - DEBUG - Processing movielens_genre:Animation (4 out of 21)
2017-05-01 21:56:44,735 - __main__ - DEBUG - Already computed, skipping
2017-05-01 21:56:44,735 - __main__ - DEBUG - Processing movielens_genre:Children (5 out of 21)
2017-05-01 21:56:44,735 - __main__ - DEBUG - Already computed, skipping
2017-05-01 21:56:44,735 - __main__ - DEBUG - Processing movielens_genre:Comedy (6 out of 21)
2017-05-01 21:56:44,735 - __main__ - DEBUG - Already computed, skipping
2017-05-01 21:56:44,735 - __main__ - DEBUG - Processing movielens_genre:Crime (7 out of 21)
2017-05-01 21:56:44,735 - __main__ - DEBUG - Already computed, skipping
2017-05-01 21:56:44,736 - __main__ - DEBUG - Processing movielens_genre:Documentary (8 out of 21)
2017-05-01 21:56:44,736 - __main__ - DEBUG - Already computed, skipping
2017-05-01 21:56:44,736 - __main__ - DEBUG - Processing movielens_genre:Drama (9 out of 21)
2017-05-01 21:56:44,736 - __main__ - DEBUG - Already computed, skipping
2017-05-01 21:56:44,736 - __main__ - DEBUG - Processing movielens_genre:Fantasy (10 out of 21)
2017-05-01 21:56:44,736 - __main__ - DEBUG - Building training and test sets for regression
2017-05-01 21:56:44,829 - __main__ - DEBUG - 2284 items in training and 978 in test set
2017-05-01 21:56:44,831 - __main__ - DEBUG - Processing feature 10
2017-05-01 21:56:44,831 - __main__ - DEBUG - Building data set
2017-05-01 21:56:44,885 - __main__ - DEBUG - Done in 0.0541870594025 seconds
2017-05-01 21:56:44,886 - __main__ - DEBUG - Training regression_tree
2017-05-01 21:56:44,886 - __main__ - DEBUG - Actually training a classifier
2017-05-01 21:56:46,606 - __main__ - DEBUG - Done in 1.72031521797 seconds
2017-05-01 21:56:46,666 - __main__ - INFO - DecisionTreeModel classifier of depth 1 with 3 nodes
  If (feature 0 <= 0.0)
   Predict: 0.0
  Else (feature 0 > 0.0)
   Predict: 0.0

2017-05-01 21:56:46,666 - __main__ - DEBUG - Measuring model QII
2017-05-01 21:56:46,672 - __main__ - DEBUG - 1 features detected
2017-05-01 21:56:46,672 - __main__ - DEBUG - Processing feature 0
2017-05-01 21:56:48,171 - __main__ - DEBUG - QII: 0.000000
2017-05-01 21:56:48,171 - __main__ - DEBUG - Model weights: [0.0]
2017-05-01 21:56:48,171 - __main__ - DEBUG - Evaluating the model, no_threshold: False
2017-05-01 21:56:48,937 - __main__ - DEBUG - {'recall': 0.0, 'precision': 0}
2017-05-01 21:56:48,937 - __main__ - DEBUG - Computing predictions on the test set
2017-05-01 21:56:48,968 - __main__ - DEBUG - Evaluating the model, no_threshold: False
2017-05-01 21:56:49,697 - __main__ - DEBUG - {'recall': 0.0, 'precision': 0}
2017-05-01 21:56:49,697 - __main__ - DEBUG - Storing in logs/quick_test.state/results.pkl
2017-05-01 21:56:49,699 - __main__ - DEBUG - Processing movielens_genre:Film-Noir (11 out of 21)
2017-05-01 21:56:49,699 - __main__ - DEBUG - Building training and test sets for regression
2017-05-01 21:56:49,779 - __main__ - DEBUG - 2284 items in training and 978 in test set
2017-05-01 21:56:49,781 - __main__ - DEBUG - Processing feature 11
2017-05-01 21:56:49,781 - __main__ - DEBUG - Building data set
2017-05-01 21:56:49,824 - __main__ - DEBUG - Done in 0.042759180069 seconds
2017-05-01 21:56:49,824 - __main__ - DEBUG - Training regression_tree
2017-05-01 21:56:49,824 - __main__ - DEBUG - Actually training a classifier
2017-05-01 21:56:50,346 - __main__ - DEBUG - Done in 0.521652936935 seconds
2017-05-01 21:56:50,383 - __main__ - INFO - DecisionTreeModel classifier of depth 1 with 3 nodes
  If (feature 0 <= 0.0)
   Predict: 0.0
  Else (feature 0 > 0.0)
   Predict: 0.0

2017-05-01 21:56:50,383 - __main__ - DEBUG - Measuring model QII
2017-05-01 21:56:50,387 - __main__ - DEBUG - 1 features detected
2017-05-01 21:56:50,387 - __main__ - DEBUG - Processing feature 0
2017-05-01 21:56:51,638 - __main__ - DEBUG - QII: 0.000000
2017-05-01 21:56:51,639 - __main__ - DEBUG - Model weights: [0.0]
2017-05-01 21:56:51,639 - __main__ - DEBUG - Evaluating the model, no_threshold: False
2017-05-01 21:56:52,379 - __main__ - DEBUG - {'recall': 0.0, 'precision': 0}
2017-05-01 21:56:52,379 - __main__ - DEBUG - Computing predictions on the test set
2017-05-01 21:56:52,410 - __main__ - DEBUG - Evaluating the model, no_threshold: False
2017-05-01 21:56:53,099 - __main__ - DEBUG - {'recall': 0.0, 'precision': 0}
2017-05-01 21:56:53,099 - __main__ - DEBUG - Storing in logs/quick_test.state/results.pkl
2017-05-01 21:56:53,101 - __main__ - DEBUG - Processing movielens_genre:Horror (12 out of 21)
2017-05-01 21:56:53,101 - __main__ - DEBUG - Building training and test sets for regression
2017-05-01 21:56:53,179 - __main__ - DEBUG - 2284 items in training and 978 in test set
2017-05-01 21:56:53,180 - __main__ - DEBUG - Processing feature 12
2017-05-01 21:56:53,180 - __main__ - DEBUG - Building data set
2017-05-01 21:56:53,212 - __main__ - DEBUG - Done in 0.031937122345 seconds
2017-05-01 21:56:53,212 - __main__ - DEBUG - Training regression_tree
2017-05-01 21:56:53,212 - __main__ - DEBUG - Actually training a classifier
2017-05-01 21:56:53,721 - __main__ - DEBUG - Done in 0.508533000946 seconds
2017-05-01 21:56:53,762 - __main__ - INFO - DecisionTreeModel classifier of depth 1 with 3 nodes
  If (feature 0 <= 0.0)
   Predict: 0.0
  Else (feature 0 > 0.0)
   Predict: 0.0

2017-05-01 21:56:53,762 - __main__ - DEBUG - Measuring model QII
2017-05-01 21:56:53,767 - __main__ - DEBUG - 1 features detected
2017-05-01 21:56:53,767 - __main__ - DEBUG - Processing feature 0
2017-05-01 21:56:55,030 - __main__ - DEBUG - QII: 0.000000
2017-05-01 21:56:55,030 - __main__ - DEBUG - Model weights: [0.0]
2017-05-01 21:56:55,030 - __main__ - DEBUG - Evaluating the model, no_threshold: False
2017-05-01 21:56:55,716 - __main__ - DEBUG - {'recall': 0.0, 'precision': 0}
2017-05-01 21:56:55,716 - __main__ - DEBUG - Computing predictions on the test set
2017-05-01 21:56:55,744 - __main__ - DEBUG - Evaluating the model, no_threshold: False
2017-05-01 21:56:56,411 - __main__ - DEBUG - {'recall': 0.0, 'precision': 0}
2017-05-01 21:56:56,411 - __main__ - DEBUG - Storing in logs/quick_test.state/results.pkl
2017-05-01 21:56:56,414 - __main__ - DEBUG - Processing movielens_genre:IMAX (13 out of 21)
2017-05-01 21:56:56,414 - __main__ - DEBUG - Building training and test sets for regression
2017-05-01 21:56:56,485 - __main__ - DEBUG - 2284 items in training and 978 in test set
2017-05-01 21:56:56,488 - __main__ - DEBUG - Processing feature 13
2017-05-01 21:56:56,488 - __main__ - DEBUG - Building data set
2017-05-01 21:56:56,526 - __main__ - DEBUG - Done in 0.0373289585114 seconds
2017-05-01 21:56:56,526 - __main__ - DEBUG - Training regression_tree
2017-05-01 21:56:56,526 - __main__ - DEBUG - Actually training a classifier
2017-05-01 21:56:57,053 - __main__ - DEBUG - Done in 0.52685379982 seconds
2017-05-01 21:56:57,085 - __main__ - INFO - DecisionTreeModel classifier of depth 1 with 3 nodes
  If (feature 0 <= 0.0)
   Predict: 0.0
  Else (feature 0 > 0.0)
   Predict: 0.0

2017-05-01 21:56:57,085 - __main__ - DEBUG - Measuring model QII
2017-05-01 21:56:57,095 - __main__ - DEBUG - 1 features detected
2017-05-01 21:56:57,095 - __main__ - DEBUG - Processing feature 0
2017-05-01 21:56:58,335 - __main__ - DEBUG - QII: 0.000000
2017-05-01 21:56:58,335 - __main__ - DEBUG - Model weights: [0.0]
2017-05-01 21:56:58,335 - __main__ - DEBUG - Evaluating the model, no_threshold: False
2017-05-01 21:56:59,015 - __main__ - DEBUG - {'recall': 0.0, 'precision': 0}
2017-05-01 21:56:59,015 - __main__ - DEBUG - Computing predictions on the test set
2017-05-01 21:56:59,042 - __main__ - DEBUG - Evaluating the model, no_threshold: False
2017-05-01 21:56:59,721 - __main__ - DEBUG - {'recall': 0.0, 'precision': 0}
2017-05-01 21:56:59,721 - __main__ - DEBUG - Storing in logs/quick_test.state/results.pkl
2017-05-01 21:56:59,723 - __main__ - DEBUG - Processing movielens_genre:Musical (14 out of 21)
2017-05-01 21:56:59,723 - __main__ - DEBUG - Building training and test sets for regression
2017-05-01 21:56:59,824 - __main__ - DEBUG - 2284 items in training and 978 in test set
2017-05-01 21:56:59,825 - __main__ - DEBUG - Processing feature 14
2017-05-01 21:56:59,825 - __main__ - DEBUG - Building data set
2017-05-01 21:56:59,861 - __main__ - DEBUG - Done in 0.0359299182892 seconds
2017-05-01 21:56:59,861 - __main__ - DEBUG - Training regression_tree
2017-05-01 21:56:59,861 - __main__ - DEBUG - Actually training a classifier
2017-05-01 21:57:00,342 - __main__ - DEBUG - Done in 0.480412006378 seconds
2017-05-01 21:57:00,373 - __main__ - INFO - DecisionTreeModel classifier of depth 1 with 3 nodes
  If (feature 0 <= 0.0)
   Predict: 0.0
  Else (feature 0 > 0.0)
   Predict: 0.0

2017-05-01 21:57:00,373 - __main__ - DEBUG - Measuring model QII
2017-05-01 21:57:00,377 - __main__ - DEBUG - 1 features detected
2017-05-01 21:57:00,378 - __main__ - DEBUG - Processing feature 0
2017-05-01 21:57:01,606 - __main__ - DEBUG - QII: 0.000000
2017-05-01 21:57:01,606 - __main__ - DEBUG - Model weights: [0.0]
2017-05-01 21:57:01,606 - __main__ - DEBUG - Evaluating the model, no_threshold: False
2017-05-01 21:57:02,354 - __main__ - DEBUG - {'recall': 0.0, 'precision': 0}
2017-05-01 21:57:02,355 - __main__ - DEBUG - Computing predictions on the test set
2017-05-01 21:57:02,381 - __main__ - DEBUG - Evaluating the model, no_threshold: False
2017-05-01 21:57:03,068 - __main__ - DEBUG - {'recall': 0.0, 'precision': 0}
2017-05-01 21:57:03,069 - __main__ - DEBUG - Storing in logs/quick_test.state/results.pkl
2017-05-01 21:57:03,072 - __main__ - DEBUG - Processing movielens_genre:Mystery (15 out of 21)
2017-05-01 21:57:03,072 - __main__ - DEBUG - Building training and test sets for regression
2017-05-01 21:57:03,148 - __main__ - DEBUG - 2284 items in training and 978 in test set
2017-05-01 21:57:03,150 - __main__ - DEBUG - Processing feature 15
2017-05-01 21:57:03,150 - __main__ - DEBUG - Building data set
2017-05-01 21:57:03,187 - __main__ - DEBUG - Done in 0.0365178585052 seconds
2017-05-01 21:57:03,187 - __main__ - DEBUG - Training regression_tree
2017-05-01 21:57:03,187 - __main__ - DEBUG - Actually training a classifier
2017-05-01 21:57:03,669 - __main__ - DEBUG - Done in 0.482381820679 seconds
2017-05-01 21:57:03,704 - __main__ - INFO - DecisionTreeModel classifier of depth 1 with 3 nodes
  If (feature 0 <= 0.0)
   Predict: 0.0
  Else (feature 0 > 0.0)
   Predict: 0.0

2017-05-01 21:57:03,704 - __main__ - DEBUG - Measuring model QII
2017-05-01 21:57:03,709 - __main__ - DEBUG - 1 features detected
2017-05-01 21:57:03,709 - __main__ - DEBUG - Processing feature 0
2017-05-01 21:57:04,995 - __main__ - DEBUG - QII: 0.000000
2017-05-01 21:57:04,996 - __main__ - DEBUG - Model weights: [0.0]
2017-05-01 21:57:04,996 - __main__ - DEBUG - Evaluating the model, no_threshold: False
2017-05-01 21:57:05,683 - __main__ - DEBUG - {'recall': 0.0, 'precision': 0}
2017-05-01 21:57:05,684 - __main__ - DEBUG - Computing predictions on the test set
2017-05-01 21:57:05,713 - __main__ - DEBUG - Evaluating the model, no_threshold: False
2017-05-01 21:57:06,380 - __main__ - DEBUG - {'recall': 0.0, 'precision': 0}
2017-05-01 21:57:06,380 - __main__ - DEBUG - Storing in logs/quick_test.state/results.pkl
2017-05-01 21:57:06,382 - __main__ - DEBUG - Processing movielens_genre:Romance (16 out of 21)
2017-05-01 21:57:06,382 - __main__ - DEBUG - Building training and test sets for regression
2017-05-01 21:57:06,447 - __main__ - DEBUG - 2284 items in training and 978 in test set
2017-05-01 21:57:06,449 - __main__ - DEBUG - Processing feature 16
2017-05-01 21:57:06,449 - __main__ - DEBUG - Building data set
2017-05-01 21:57:06,480 - __main__ - DEBUG - Done in 0.0303471088409 seconds
2017-05-01 21:57:06,480 - __main__ - DEBUG - Training regression_tree
2017-05-01 21:57:06,480 - __main__ - DEBUG - Actually training a classifier
2017-05-01 21:57:06,946 - __main__ - DEBUG - Done in 0.46658205986 seconds
2017-05-01 21:57:06,983 - __main__ - INFO - DecisionTreeModel classifier of depth 1 with 3 nodes
  If (feature 0 <= 0.0)
   Predict: 0.0
  Else (feature 0 > 0.0)
   Predict: 0.0

2017-05-01 21:57:06,983 - __main__ - DEBUG - Measuring model QII
2017-05-01 21:57:06,988 - __main__ - DEBUG - 1 features detected
2017-05-01 21:57:06,988 - __main__ - DEBUG - Processing feature 0
2017-05-01 21:57:08,222 - __main__ - DEBUG - QII: 0.000000
2017-05-01 21:57:08,222 - __main__ - DEBUG - Model weights: [0.0]
2017-05-01 21:57:08,222 - __main__ - DEBUG - Evaluating the model, no_threshold: False
2017-05-01 21:57:08,906 - __main__ - DEBUG - {'recall': 0.0, 'precision': 0}
2017-05-01 21:57:08,906 - __main__ - DEBUG - Computing predictions on the test set
2017-05-01 21:57:08,930 - __main__ - DEBUG - Evaluating the model, no_threshold: False
2017-05-01 21:57:09,610 - __main__ - DEBUG - {'recall': 0.0, 'precision': 0}
2017-05-01 21:57:09,610 - __main__ - DEBUG - Storing in logs/quick_test.state/results.pkl
2017-05-01 21:57:09,613 - __main__ - DEBUG - Processing movielens_genre:Sci-Fi (17 out of 21)
2017-05-01 21:57:09,613 - __main__ - DEBUG - Building training and test sets for regression
2017-05-01 21:57:09,687 - __main__ - DEBUG - 2284 items in training and 978 in test set
2017-05-01 21:57:09,690 - __main__ - DEBUG - Processing feature 17
2017-05-01 21:57:09,690 - __main__ - DEBUG - Building data set
2017-05-01 21:57:09,728 - __main__ - DEBUG - Done in 0.0378460884094 seconds
2017-05-01 21:57:09,728 - __main__ - DEBUG - Training regression_tree
2017-05-01 21:57:09,728 - __main__ - DEBUG - Actually training a classifier
2017-05-01 21:57:10,215 - __main__ - DEBUG - Done in 0.486884117126 seconds
2017-05-01 21:57:10,246 - __main__ - INFO - DecisionTreeModel classifier of depth 1 with 3 nodes
  If (feature 0 <= 0.0)
   Predict: 0.0
  Else (feature 0 > 0.0)
   Predict: 0.0

2017-05-01 21:57:10,246 - __main__ - DEBUG - Measuring model QII
2017-05-01 21:57:10,250 - __main__ - DEBUG - 1 features detected
2017-05-01 21:57:10,250 - __main__ - DEBUG - Processing feature 0
2017-05-01 21:57:11,475 - __main__ - DEBUG - QII: 0.000000
2017-05-01 21:57:11,475 - __main__ - DEBUG - Model weights: [0.0]
2017-05-01 21:57:11,475 - __main__ - DEBUG - Evaluating the model, no_threshold: False
2017-05-01 21:57:12,158 - __main__ - DEBUG - {'recall': 0.0, 'precision': 0}
2017-05-01 21:57:12,159 - __main__ - DEBUG - Computing predictions on the test set
2017-05-01 21:57:12,184 - __main__ - DEBUG - Evaluating the model, no_threshold: False
2017-05-01 21:57:12,848 - __main__ - DEBUG - {'recall': 0.0, 'precision': 0}
2017-05-01 21:57:12,848 - __main__ - DEBUG - Storing in logs/quick_test.state/results.pkl
2017-05-01 21:57:12,852 - __main__ - DEBUG - Processing movielens_genre:Thriller (18 out of 21)
2017-05-01 21:57:12,852 - __main__ - DEBUG - Building training and test sets for regression
2017-05-01 21:57:12,921 - __main__ - DEBUG - 2284 items in training and 978 in test set
2017-05-01 21:57:12,923 - __main__ - DEBUG - Processing feature 18
2017-05-01 21:57:12,923 - __main__ - DEBUG - Building data set
2017-05-01 21:57:12,955 - __main__ - DEBUG - Done in 0.0311281681061 seconds
2017-05-01 21:57:12,955 - __main__ - DEBUG - Training regression_tree
2017-05-01 21:57:12,955 - __main__ - DEBUG - Actually training a classifier
2017-05-01 21:57:13,427 - __main__ - DEBUG - Done in 0.472737073898 seconds
2017-05-01 21:57:13,459 - __main__ - INFO - DecisionTreeModel classifier of depth 1 with 3 nodes
  If (feature 0 <= 0.0)
   Predict: 0.0
  Else (feature 0 > 0.0)
   Predict: 0.0

2017-05-01 21:57:13,459 - __main__ - DEBUG - Measuring model QII
2017-05-01 21:57:13,464 - __main__ - DEBUG - 1 features detected
2017-05-01 21:57:13,464 - __main__ - DEBUG - Processing feature 0
2017-05-01 21:57:14,646 - __main__ - DEBUG - QII: 0.000000
2017-05-01 21:57:14,646 - __main__ - DEBUG - Model weights: [0.0]
2017-05-01 21:57:14,646 - __main__ - DEBUG - Evaluating the model, no_threshold: False
2017-05-01 21:57:15,370 - __main__ - DEBUG - {'recall': 0.0, 'precision': 0}
2017-05-01 21:57:15,371 - __main__ - DEBUG - Computing predictions on the test set
2017-05-01 21:57:15,400 - __main__ - DEBUG - Evaluating the model, no_threshold: False
2017-05-01 21:57:16,054 - __main__ - DEBUG - {'recall': 0.0, 'precision': 0}
2017-05-01 21:57:16,055 - __main__ - DEBUG - Storing in logs/quick_test.state/results.pkl
2017-05-01 21:57:16,057 - __main__ - DEBUG - Processing movielens_genre:War (19 out of 21)
2017-05-01 21:57:16,057 - __main__ - DEBUG - Building training and test sets for regression
2017-05-01 21:57:16,127 - __main__ - DEBUG - 2284 items in training and 978 in test set
2017-05-01 21:57:16,130 - __main__ - DEBUG - Processing feature 19
2017-05-01 21:57:16,130 - __main__ - DEBUG - Building data set
2017-05-01 21:57:16,161 - __main__ - DEBUG - Done in 0.0307021141052 seconds
2017-05-01 21:57:16,161 - __main__ - DEBUG - Training regression_tree
2017-05-01 21:57:16,161 - __main__ - DEBUG - Actually training a classifier
2017-05-01 21:57:16,626 - __main__ - DEBUG - Done in 0.465412855148 seconds
2017-05-01 21:57:16,660 - __main__ - INFO - DecisionTreeModel classifier of depth 1 with 3 nodes
  If (feature 0 <= 0.0)
   Predict: 0.0
  Else (feature 0 > 0.0)
   Predict: 0.0

2017-05-01 21:57:16,660 - __main__ - DEBUG - Measuring model QII
2017-05-01 21:57:16,664 - __main__ - DEBUG - 1 features detected
2017-05-01 21:57:16,664 - __main__ - DEBUG - Processing feature 0
2017-05-01 21:57:17,855 - __main__ - DEBUG - QII: 0.000000
2017-05-01 21:57:17,855 - __main__ - DEBUG - Model weights: [0.0]
2017-05-01 21:57:17,855 - __main__ - DEBUG - Evaluating the model, no_threshold: False
2017-05-01 21:57:18,607 - __main__ - DEBUG - {'recall': 0.0, 'precision': 0}
2017-05-01 21:57:18,607 - __main__ - DEBUG - Computing predictions on the test set
2017-05-01 21:57:18,634 - __main__ - DEBUG - Evaluating the model, no_threshold: False
2017-05-01 21:57:19,302 - __main__ - DEBUG - {'recall': 0.0, 'precision': 0}
2017-05-01 21:57:19,303 - __main__ - DEBUG - Storing in logs/quick_test.state/results.pkl
2017-05-01 21:57:19,307 - __main__ - DEBUG - Processing movielens_genre:Western (20 out of 21)
2017-05-01 21:57:19,307 - __main__ - DEBUG - Building training and test sets for regression
2017-05-01 21:57:19,372 - __main__ - DEBUG - 2284 items in training and 978 in test set
2017-05-01 21:57:19,375 - __main__ - DEBUG - Processing feature 20
2017-05-01 21:57:19,375 - __main__ - DEBUG - Building data set
2017-05-01 21:57:19,406 - __main__ - DEBUG - Done in 0.0305428504944 seconds
2017-05-01 21:57:19,406 - __main__ - DEBUG - Training regression_tree
2017-05-01 21:57:19,406 - __main__ - DEBUG - Actually training a classifier
2017-05-01 21:57:19,875 - __main__ - DEBUG - Done in 0.468839168549 seconds
2017-05-01 21:57:19,916 - __main__ - INFO - DecisionTreeModel classifier of depth 1 with 3 nodes
  If (feature 0 <= 0.0)
   Predict: 0.0
  Else (feature 0 > 0.0)
   Predict: 0.0

2017-05-01 21:57:19,916 - __main__ - DEBUG - Measuring model QII
2017-05-01 21:57:19,921 - __main__ - DEBUG - 1 features detected
2017-05-01 21:57:19,921 - __main__ - DEBUG - Processing feature 0
2017-05-01 21:57:21,182 - __main__ - DEBUG - QII: 0.000000
2017-05-01 21:57:21,183 - __main__ - DEBUG - Model weights: [0.0]
2017-05-01 21:57:21,183 - __main__ - DEBUG - Evaluating the model, no_threshold: False
2017-05-01 21:57:21,859 - __main__ - DEBUG - {'recall': 0.0, 'precision': 0}
2017-05-01 21:57:21,859 - __main__ - DEBUG - Computing predictions on the test set
2017-05-01 21:57:21,885 - __main__ - DEBUG - Evaluating the model, no_threshold: False
2017-05-01 21:57:22,550 - __main__ - DEBUG - {'recall': 0.0, 'precision': 0}
2017-05-01 21:57:22,550 - __main__ - DEBUG - Storing in logs/quick_test.state/results.pkl
2017-05-01 21:57:22,555 - __main__ - INFO - Overall results dict: {'feature_ranges': {0: {'min': 0.0, '_max': 4.1666669845581055}}, 'nof': 21, 'categorical_features': {1: 2, 2: 2, 3: 2, 4: 2, 5: 2, 6: 2, 7: 2, 8: 2, 9: 2, 10: 2, 11: 2, 12: 2, 13: 2, 14: 2, 15: 2, 16: 2, 17: 2, 18: 2, 19: 2, 20: 2}, 'indicator_ranges': {0: {'min': 1891.0, '_max': 2015.0}, 1: {'min': 0, '_max': 1}, 2: {'min': 0, '_max': 1}, 3: {'min': 0, '_max': 1}, 4: {'min': 0, '_max': 1}, 5: {'min': 0, '_max': 1}, 6: {'min': 0, '_max': 1}, 7: {'min': 0, '_max': 1}, 8: {'min': 0, '_max': 1}, 9: {'min': 0, '_max': 1}, 10: {'min': 0, '_max': 1}, 11: {'min': 0, '_max': 1}, 12: {'min': 0, '_max': 1}, 13: {'min': 0, '_max': 1}, 14: {'min': 0, '_max': 1}, 15: {'min': 0, '_max': 1}, 16: {'min': 0, '_max': 1}, 17: {'min': 0, '_max': 1}, 18: {'min': 0, '_max': 1}, 19: {'min': 0, '_max': 1}, 20: {'min': 0, '_max': 1}}, 'mean_feature_values': {0: 0.375210555466262}, 'mean_indicator_values': {0: 1989.5668183853156, 1: 0.008767348156991494, 2: 0.12960752126548275, 3: 0.08573347261602746, 4: 0.037419788091329655, 5: 0.04182211610207432, 6: 0.3077152663781525, 7: 0.10808088345023131, 8: 0.09024772422026563, 9: 0.4892553350246232, 10: 0.051820623787494406, 11: 0.012162363826294582, 12: 0.09506043874048649, 13: 0.007275033577078048, 14: 0.03801671392329503, 15: 0.055775257424265035, 16: 0.15229070288016713, 17: 0.06424414266527384, 18: 0.15415609610505895, 19: 0.04379943292045963, 20: 0.024809729891061037}, 'not_linlog': True, 'train_ratio': 70, 'features': {0: {'qii': [0.44073223325796756], 'name': 'year', 'eval_test': {'preds_histogram': ([1918.0, 1945.3333333333333, 1972.6666666666667, 2000.0], [0, 0, 978]), 'errors_histogram': ([-2000.0, -666.6666666666667, 666.6666666666665, 2000.0], [0, 978, 0]), 'mean_err': 0.5650303773241742, 'sq_errors_histogram': ([0.0, 1333333.3333333333, 2666666.6666666665, 4000000.0], [978, 0, 0]), 'mean_abs_err': 12.191098924230285, 'obs_histogram': ([1918.0, 1945.3333333333333, 1972.6666666666667, 2000.0], [44, 129, 805]), 'abs_errors_histogram': ([0.0, 666.6666666666666, 1333.3333333333333, 2000.0], [978, 0, 0]), 'mre': 12.191098924230285, 'mrae': 0.006177634608070534}, 'weights': [0.44073223325796756], 'eval': {'preds_histogram': ([1919.0, 1946.0, 1973.0, 2000.0], [0, 0, 2284]), 'errors_histogram': ([-2000.0, -666.6666666666667, 666.6666666666665, 2000.0], [0, 2284, 0]), 'mean_err': -2.2896648577908657e-14, 'sq_errors_histogram': ([0.0, 1333333.3333333333, 2666666.6666666665, 4000000.0], [2284, 0, 0]), 'mean_abs_err': 12.100672027201247, 'obs_histogram': ([1919.0, 1946.0, 1973.0, 2000.0], [103, 259, 1922]), 'abs_errors_histogram': ([0.0, 666.6666666666666, 1333.3333333333333, 2000.0], [2284, 0, 0]), 'mre': 12.100672027201249, 'mrae': 0.006128611104806507}, 'type': 'regression'}, 1: {'qii': [0.0], 'name': 'movielens_genre:(no genres listed)', 'eval_test': {'recall': 0, 'precision': 0}, 'weights': [0.0], 'eval': {'recall': 0, 'precision': 0}, 'type': 'classification'}, 2: {'qii': [0.0], 'name': 'movielens_genre:Action', 'eval_test': {'recall': 0.0, 'precision': 0}, 'weights': [0.0], 'eval': {'recall': 0.0, 'precision': 0}, 'type': 'classification'}, 3: {'qii': [0.0], 'name': 'movielens_genre:Adventure', 'eval_test': {'recall': 0.0, 'precision': 0}, 'weights': [0.0], 'eval': {'recall': 0.0, 'precision': 0}, 'type': 'classification'}, 4: {'qii': [0.0], 'name': 'movielens_genre:Animation', 'eval_test': {'recall': 0.0, 'precision': 0}, 'weights': [0.0], 'eval': {'recall': 0.0, 'precision': 0}, 'type': 'classification'}, 5: {'qii': [0.0], 'name': 'movielens_genre:Children', 'eval_test': {'recall': 0.0, 'precision': 0}, 'weights': [0.0], 'eval': {'recall': 0.0, 'precision': 0}, 'type': 'classification'}, 6: {'qii': [0.0], 'name': 'movielens_genre:Comedy', 'eval_test': {'recall': 0.0, 'precision': 0}, 'weights': [0.0], 'eval': {'recall': 0.0, 'precision': 0}, 'type': 'classification'}, 7: {'qii': [0.0], 'name': 'movielens_genre:Crime', 'eval_test': {'recall': 0.0, 'precision': 0}, 'weights': [0.0], 'eval': {'recall': 0.0, 'precision': 0}, 'type': 'classification'}, 8: {'qii': [0.0], 'name': 'movielens_genre:Documentary', 'eval_test': {'recall': 0.0, 'precision': 0}, 'weights': [0.0], 'eval': {'recall': 0.0, 'precision': 0}, 'type': 'classification'}, 9: {'qii': [0.0], 'name': 'movielens_genre:Drama', 'eval_test': {'recall': 0.0, 'precision': 0}, 'weights': [0.0], 'eval': {'recall': 0.0, 'precision': 0}, 'type': 'classification'}, 10: {'qii': [0.0], 'name': 'movielens_genre:Fantasy', 'type': 'classification', 'weights': [0.0], 'eval': {'recall': 0.0, 'precision': 0}, 'eval_test': {'recall': 0.0, 'precision': 0}}, 11: {'qii': [0.0], 'name': 'movielens_genre:Film-Noir', 'type': 'classification', 'weights': [0.0], 'eval': {'recall': 0.0, 'precision': 0}, 'eval_test': {'recall': 0.0, 'precision': 0}}, 12: {'qii': [0.0], 'name': 'movielens_genre:Horror', 'type': 'classification', 'weights': [0.0], 'eval': {'recall': 0.0, 'precision': 0}, 'eval_test': {'recall': 0.0, 'precision': 0}}, 13: {'qii': [0.0], 'name': 'movielens_genre:IMAX', 'type': 'classification', 'weights': [0.0], 'eval': {'recall': 0.0, 'precision': 0}, 'eval_test': {'recall': 0.0, 'precision': 0}}, 14: {'qii': [0.0], 'name': 'movielens_genre:Musical', 'type': 'classification', 'weights': [0.0], 'eval': {'recall': 0.0, 'precision': 0}, 'eval_test': {'recall': 0.0, 'precision': 0}}, 15: {'qii': [0.0], 'name': 'movielens_genre:Mystery', 'type': 'classification', 'weights': [0.0], 'eval': {'recall': 0.0, 'precision': 0}, 'eval_test': {'recall': 0.0, 'precision': 0}}, 16: {'qii': [0.0], 'name': 'movielens_genre:Romance', 'type': 'classification', 'weights': [0.0], 'eval': {'recall': 0.0, 'precision': 0}, 'eval_test': {'recall': 0.0, 'precision': 0}}, 17: {'qii': [0.0], 'name': 'movielens_genre:Sci-Fi', 'type': 'classification', 'weights': [0.0], 'eval': {'recall': 0.0, 'precision': 0}, 'eval_test': {'recall': 0.0, 'precision': 0}}, 18: {'qii': [0.0], 'name': 'movielens_genre:Thriller', 'type': 'classification', 'weights': [0.0], 'eval': {'recall': 0.0, 'precision': 0}, 'eval_test': {'recall': 0.0, 'precision': 0}}, 19: {'qii': [0.0], 'name': 'movielens_genre:War', 'type': 'classification', 'weights': [0.0], 'eval': {'recall': 0.0, 'precision': 0}, 'eval_test': {'recall': 0.0, 'precision': 0}}, 20: {'qii': [0.0], 'name': 'movielens_genre:Western', 'type': 'classification', 'weights': [0.0], 'eval': {'recall': 0.0, 'precision': 0}, 'eval_test': {'recall': 0.0, 'precision': 0}}}}
2017-05-01 21:57:22,555 - __main__ - INFO - Train ratio: 70.000000 %
2017-05-01 21:57:22,559 - __main__ - INFO - 
+------------------------------------+-----------+--------+----------------+-------------+
|              Feature               | Precision | Recall | Precision test | Recall test |
+------------------------------------+-----------+--------+----------------+-------------+
| movielens_genre:(no genres listed) |     0     |   0    |       0        |      0      |
|       movielens_genre:Action       |     0     |  0.0   |       0        |     0.0     |
|     movielens_genre:Adventure      |     0     |  0.0   |       0        |     0.0     |
|     movielens_genre:Animation      |     0     |  0.0   |       0        |     0.0     |
|      movielens_genre:Children      |     0     |  0.0   |       0        |     0.0     |
|       movielens_genre:Comedy       |     0     |  0.0   |       0        |     0.0     |
|       movielens_genre:Crime        |     0     |  0.0   |       0        |     0.0     |
|    movielens_genre:Documentary     |     0     |  0.0   |       0        |     0.0     |
|       movielens_genre:Drama        |     0     |  0.0   |       0        |     0.0     |
|      movielens_genre:Fantasy       |     0     |  0.0   |       0        |     0.0     |
|     movielens_genre:Film-Noir      |     0     |  0.0   |       0        |     0.0     |
|       movielens_genre:Horror       |     0     |  0.0   |       0        |     0.0     |
|        movielens_genre:IMAX        |     0     |  0.0   |       0        |     0.0     |
|      movielens_genre:Musical       |     0     |  0.0   |       0        |     0.0     |
|      movielens_genre:Mystery       |     0     |  0.0   |       0        |     0.0     |
|      movielens_genre:Romance       |     0     |  0.0   |       0        |     0.0     |
|       movielens_genre:Sci-Fi       |     0     |  0.0   |       0        |     0.0     |
|      movielens_genre:Thriller      |     0     |  0.0   |       0        |     0.0     |
|        movielens_genre:War         |     0     |  0.0   |       0        |     0.0     |
|      movielens_genre:Western       |     0     |  0.0   |       0        |     0.0     |
+------------------------------------+-----------+--------+----------------+-------------+
2017-05-01 21:57:22,560 - __main__ - INFO - 
+---------+------------------+------------------+------------------+-------------------+
| Feature |       MRAE       |   Mean abs err   |    MRAE test     | Mean abs err test |
+---------+------------------+------------------+------------------+-------------------+
|   year  | 0.00612861110481 | 0.00612861110481 | 0.00617763460807 |   12.1910989242   |
+---------+------------------+------------------+------------------+-------------------+
